tree
version=v4
num_class=1
num_tree_per_iteration=1
label_index=0
max_feature_idx=14
objective=binary sigmoid:1
feature_names=low high volume close return_1d return_3d return_5d ma_5 ma_10 ma_ratio_5 volatility_5 vol_chg vol_ma_5 hl_range symbol_enc
feature_infos=[5.4000000000000004:1188] [5.7999999999999998:1200] [1:551062649] [5.5999999999999996:1192.75] [-0.80647482014388494:0.21036106750392469] [-0.81928571428571428:0.23652537938252211] [-0.82461005199306758:0.46310832025117737] [5.7200000000000006:1192.75] [5.8100000000000005:1188.925] [0.22685107100691509:1.1953826421547671] [0:0.3772719777761217] [-0.99948632335944521:6538] [2:113847920.8] [0:0.33177570093457948] [0:13]
tree_sizes=3360 3381 3380 3379 3389 3389 3393 3392 3379 3402 3383 3407 3389 3408 3401 3402

Tree=0
num_leaves=31
num_cat=0
split_feature=12 12 13 5 2 2 3 4 12 4 13 5 12 6 14 12 13 11 5 5 10 1 5 13 13 4 4 13 0 1
split_gain=88.5553 30.432 22.1126 17.431 28.5499 17.1729 15.1305 12.6521 12.2243 9.49362 9.45404 9.23093 10.9292 7.57655 7.29181 8.02751 11.0754 10.3185 7.05372 7.82431 7.26754 7.00415 9.54567 6.85232 6.79549 6.44961 9.3253 9.15605 5.97203 5.79921
threshold=362.60000000000008 973208.00000000012 0.05004173622704506 -0.012961811797516749 5293824.5000000009 504647.00000000006 174.25000000000003 -0.0037664917009504494 34644.100000000006 0.0048274094326726516 0.016021390374331552 -0.035901234567901195 677350.70000000007 -0.016842777108006496 1.0000000180025095e-35 247334.90000000002 0.024684104394249205 -0.49679205632211426 0.016981192528275204 0.026281456013384306 0.015167492234986103 77.950000000000017 -0.018181818181818046 0.035022862477597456 0.023576964614700404 -0.011787864752200049 -0.018867924528301747 0.038706773903196809 22.650000000000002 489.87500000000006
decision_type=2 2 2 2 2 2 2 2 2 2 2 2 2 2 2 2 2 2 2 2 2 2 2 2 2 2 2 2 2 2
left_child=6 5 3 13 18 7 -1 21 10 -6 -9 -7 -13 -3 -10 23 17 -17 20 -20 28 25 -23 -16 -14 26 27 -2 -5 -8
right_child=1 2 -4 4 9 11 29 8 14 -11 -12 12 24 -15 15 16 -18 -19 19 -21 -22 22 -24 -25 -26 -27 -28 -29 -30 -31
leaf_value=-0.52071799985415401 -0.45548593449906538 -0.49343290462332184 -0.48339389186190967 -0.58892144179385086 -0.54245689755393223 -0.42982763199927732 -0.61447686324920214 -0.58988101080742084 -0.5433651259421941 -0.47556091251380173 -0.52730701070388297 -0.46815835645428028 -0.54309470743305421 -0.53550330443321892 -0.50258022359523546 -0.54843049711057656 -0.57043997933369917 -0.47992012091095315 -0.51474277771037458 -0.57361643045850863 -0.61447686324920214 -0.48416065832130339 -0.551626946955321 -0.45846110046428773 -0.48816388467499128 -0.47511075965333965 -0.53550330443321892 -0.52012947406403964 -0.53054671023557709 -0.57631625952921828
leaf_weight=10.559847190976141 12.594162717461588 23.279179841279984 21.654401019215584 11.292638182640077 9.1854082345962542 8.3274473100900632 13.569394424557684 9.2662218064069766 14.443153649568556 12.549806356430052 17.317201495170593 33.721756249666214 10.283379569649698 19.807840391993523 34.704887107014656 8.7837706804275513 9.1410518735647184 14.683164060115814 9.2297645956277865 14.523967221379278 13.569394424557684 9.67575851082802 11.443935871124266 11.790887609124182 12.442865028977392 42.656824618577957 14.148457422852514 9.6939871162176114 7.1589918583631507 37.385711207985878
leaf_count=36 36 74 67 45 33 22 57 37 52 38 60 100 37 70 113 32 35 45 31 56 57 30 42 34 39 129 50 33 25 145
internal_value=-0.5191 -0.511026 -0.529916 -0.538269 -0.552442 -0.501602 -0.57519 -0.508255 -0.519198 -0.503831 -0.549119 -0.47897 -0.48622 -0.512773 -0.510696 -0.504731 -0.523751 -0.505564 -0.571385 -0.55074 -0.5867 -0.495137 -0.520718 -0.491392 -0.513019 -0.488307 -0.503755 -0.483602 -0.566273 -0.586478
internal_weight=488.885 427.37 142.251 120.597 77.51 285.119 61.515 220.343 120.13 21.7352 26.5834 64.7754 56.448 43.087 93.5469 79.1038 32.608 23.4669 55.7748 23.7537 32.021 100.213 21.1197 46.4958 22.7262 79.0934 36.4366 22.2881 18.4516 50.9551
internal_count=1660 1422 496 429 285 926 238 728 408 71 97 198 176 144 311 259 112 77 214 87 127 320 72 147 76 248 119 69 70 202
is_linear=0
shrinkage=1


Tree=1
num_leaves=31
num_cat=0
split_feature=12 12 13 2 3 1 3 2 4 10 4 11 11 13 6 4 12 3 12 1 0 11 4 4 12 10 12 13 2 2
split_gain=79.1118 26.7438 19.4777 14.9583 20.5998 24.6374 13.8018 13.7727 13.0403 11.0508 9.85346 9.65453 8.38314 8.28494 7.7534 7.05048 6.97015 5.78638 5.5413 5.44208 5.39349 7.5092 4.82372 4.81879 4.7211 4.62471 4.31318 6.67264 6.43385 5.53159
threshold=362.60000000000008 973208.00000000012 0.05004173622704506 216582.50000000003 22.750000000000004 23.950000000000003 174.25000000000003 4596906.0000000009 -0.018019480519480498 0.0091711102453868026 0.0086458203562975022 0.2150070044789755 -0.50320709780794848 0.030097834948817802 -0.056584095980338193 -0.0037664917009504494 10667132.700000001 26.550000000000004 54978.400000000009 489.87500000000006 29.550000000000004 0.68698620569963598 -0.0037664917009504494 -0.0039920318725099992 93008.900000000009 0.017675686784279356 2532720.7000000007 0.030718214863980953 1421597.0000000002 1797275.0000000002
decision_type=2 2 2 2 2 2 2 2 2 2 2 2 2 2 2 2 2 2 2 2 2 2 2 2 2 2 2 2 2 2
left_child=6 3 7 4 11 -6 -1 8 -3 22 16 -2 -5 15 -14 24 -9 -15 -17 -8 21 -16 -7 -19 -11 -20 28 -28 -10 -30
right_child=1 2 -4 12 5 9 19 10 26 13 -12 -13 14 17 20 18 -18 23 25 -21 -22 -23 -24 -25 -26 -27 27 -29 29 -31
leaf_value=0.026041014520016659 0.090704765585201269 0.050000901801180858 0.060662828040167184 0.017674446119090581 -0.039909042952097046 0.02883572966502497 -0.064053467438986267 0.038145440149279251 -0.016792086008715186 0.074179790088515024 0.071056225634140352 0.032187458321419067 0.10612084928868654 0.079546840801918067 0.06464483051009394 -0.02512219369341431 -0.016649335222199291 0.018657499482580848 0.041397049361749955 -0.026793820355520949 0.064286580080312586 0.014851079554444459 -0.01928773200337321 0.061570907507197063 0.02819630887929548 -0.0061446940742807135 -0.0014822494159527771 -0.054935915329256561 0.050358156630649166 -0.00087270716289907359
leaf_weight=10.636253982782362 20.241412371397022 10.67353345453739 22.012169748544693 12.436601087450979 13.140514835715292 8.7081023752689379 13.317969784140585 14.658056408166887 27.935849592089653 9.5078447014093417 12.525546640157698 10.814480155706404 8.752892002463339 16.214009940624237 14.891333222389223 8.0404632985591906 9.6077682971954328 12.253908410668375 13.551142126321794 37.100182861089706 75.796847373247147 15.403467953205107 12.952662900090216 14.033451750874518 13.518021360039709 8.2171945422887784 12.298459708690645 11.11441086232662 8.6999660432338732 13.360597252845762
leaf_count=36 57 34 67 43 52 29 57 48 106 28 37 36 23 47 45 31 36 42 44 145 229 53 49 43 45 30 45 46 28 49
internal_value=0.0275534 0.0350933 0.0174036 0.0438553 0.0337379 0.0250062 -0.025717 0.0095258 -0.00163851 0.0322972 0.0350406 0.0703275 0.0566683 0.0396219 0.0608909 0.026402 0.0164501 0.0560559 0.010349 -0.036636 0.0571593 0.0393271 5.89543e-05 0.0415667 0.0471838 0.0234508 -0.00914675 -0.0268574 -0.000852998 0.0193311
internal_weight=492.415 431.361 142.886 288.474 161.193 130.137 61.0544 120.874 84.0828 116.997 36.7914 31.0559 127.281 95.336 114.845 52.8347 24.2658 42.5014 29.8088 50.4182 106.092 30.2948 21.6608 26.2874 23.0259 21.7683 73.4093 23.4129 49.9964 22.0606
internal_count=1660 1422 496 926 533 440 238 429 308 388 121 93 393 310 350 178 84 132 105 202 327 98 78 85 73 74 274 91 183 77
is_linear=0
shrinkage=0.05


Tree=2
num_leaves=31
num_cat=0
split_feature=12 12 4 2 6 4 6 3 2 3 1 10 5 10 5 5 11 3 5 4 4 8 10 4 13 8 4 4 12 4
split_gain=70.803 23.5955 18.0727 21.6179 15.3796 17.3251 13.8366 12.5957 12.0462 16.87 21.5198 10.5998 10.0917 10.4679 10.0315 9.0223 8.71976 7.5449 7.47654 10.6382 9.01434 9.79033 7.54172 7.2887 5.92079 6.71001 5.84226 5.79714 6.12809 5.75289
threshold=362.60000000000008 973208.00000000012 -0.022779161477791649 1421597.0000000002 0.021595637824652101 0.012605264551665652 -0.069942151648095585 174.25000000000003 216582.50000000003 22.750000000000004 23.550000000000004 0.0093647111581746517 -0.023455839201877899 0.016071381643149404 -0.012961811797516749 -0.0054103895090156498 0.2150070044789755 20.950000000000003 -0.035901234567901195 -0.011599077455314249 -0.0018692176537997997 46.760000000000012 0.021096962110490555 0.0033642310652360003 0.030097834948817802 77.905000000000015 -0.0037664917009504494 0.018458734039200352 8178399.0000000009 0.0094563176249664021
decision_type=2 2 2 2 2 2 2 2 2 2 2 2 2 2 2 2 2 2 2 2 2 2 2 2 2 2 2 2 2 2
left_child=7 6 -3 14 5 12 -2 -1 9 16 -11 15 -5 17 -4 -12 -8 -14 -10 -20 -21 22 29 -23 26 -26 -13 28 -6 -22
right_child=1 2 3 4 27 -7 8 -9 18 10 11 24 13 -15 -16 -17 -18 -19 19 20 21 23 -24 -25 25 -27 -28 -29 -30 -31
leaf_value=0.024575146459595812 0.094631917294012283 0.06464365924149304 0.011570665398428336 0.061699839241298841 -0.000563534875580742 -0.053402398896796932 0.082768822681478241 -0.035198539364859331 0.091243923087616655 -0.05072286262085296 0.029779506578735179 0.043247485309641655 0.046714007795076375 -0.044905062146583241 -0.04152007110319917 -0.031135948260013264 0.026400738379025596 -0.0090047859732684584 0.011212674043043425 0.084703831366753718 0.020955704641209251 0.027786947928743345 -0.010763386010937138 0.07532590366565485 0.064973691917767876 0.02063965564074045 0.009918993750657466 0.069996775876240466 0.057516968323521572 0.068536242930101687
leaf_weight=10.705314829945562 11.6482797563076 17.136981561779976 14.230456903576849 10.905205756425856 8.7935340404510516 9.8396556824445707 19.822506949305538 49.870487168431282 10.400422394275664 9.4820358753204328 11.753867626190187 23.49504579603672 13.680645927786829 7.6771862208843222 23.74238745868206 12.589130893349646 10.492426812648771 10.929390266537665 17.591770052909851 18.654283612966537 15.198801264166834 11.008938565850256 9.7123150676488859 30.129829615354538 25.806022509932518 12.752167344093321 29.859834834933281 17.080724731087685 9.392411068081854 10.915204882621763
leaf_count=36 31 51 50 33 32 40 55 202 28 39 39 74 44 31 96 49 35 40 60 52 51 36 35 86 76 43 105 50 29 32
internal_value=0.0260079 0.0330647 0.0164623 0.00992336 0.0234903 0.00647353 0.0412378 -0.024635 0.0390139 0.0297782 0.0217061 0.0276136 0.0201138 0.00606793 -0.0216241 -0.00172329 0.063259 0.0219691 0.0506735 0.0469464 0.0535206 0.0459626 0.0268532 0.0626042 0.0353834 0.0503113 0.0245953 0.0490793 0.029433 0.0408436
internal_weight=495.297 434.721 143.409 126.272 88.2988 53.0321 291.313 60.5758 279.665 156.053 125.738 116.256 43.1924 32.2872 37.9728 24.343 30.3149 24.61 123.612 113.211 95.6194 76.9651 35.8263 41.1388 91.9131 38.5582 53.3549 35.2667 18.1859 26.114
internal_count=1660 1422 496 445 299 188 926 238 895 515 425 386 148 115 146 88 90 84 380 352 292 240 118 122 298 119 179 111 61 83
is_linear=0
shrinkage=0.05


Tree=3
num_leaves=31
num_cat=0
split_feature=0 9 3 12 9 4 12 11 7 13 13 12 12 10 8 9 5 12 10 5 4 11 12 12 7 7 5 11 9 4
split_gain=63.5877 24.5575 29.2086 13.601 12.8589 9.03224 8.87791 8.18252 6.48437 7.17586 6.49824 12.9243 6.70519 6.61082 6.30776 6.20869 5.56949 8.15904 10.3862 11.3019 4.6981 4.841 11.5237 11.4584 5.58262 10.1479 8.78173 5.12205 4.59585 4.52993
threshold=169.25000000000003 0.98735889328965543 6.7500000000000009 1948.1000000000001 1.0082539815634877 -0.039755122438780544 958357.30000000016 -0.76917999669112913 22.250000000000004 0.042438536306460807 0.017543859649122754 112772.20000000001 97331.000000000015 0.011088499488476651 5.9350000000000014 1.0000844915719658 -0.050333463254081591 3782429.8000000003 0.0077595154182276008 -0.032719973235195647 -0.0049751243781094492 -0.14478532719455728 302229.50000000006 509795.40000000008 56.990000000000009 47.040000000000006 0.038180483246562612 -0.41632176373681712 1.0156934106830124 0.0083916248063470519
decision_type=2 2 2 2 2 2 2 2 2 2 2 2 2 2 2 2 2 2 2 2 2 2 2 2 2 2 2 2 2 2
left_child=1 5 14 15 6 -1 8 -6 -4 10 11 -10 -12 -13 -3 -2 -7 18 -18 -20 -9 27 -23 -24 25 26 -25 -22 -17 -14
right_child=3 2 4 -5 7 16 -8 20 9 -11 12 13 29 -15 -16 28 17 -19 19 -21 21 22 23 24 -26 -27 -28 -29 -30 -31
leaf_value=0.091185710194529562 -0.039233903299876714 0.001241477376155493 0.060513021071259478 0.032637448735360813 0.0075469631865955457 0.019147054904418984 -0.00098605423524992988 0.013254033022928775 -0.024725491965120642 -0.021658122483704856 0.061906851384329512 0.050521890219096116 0.016850256881095045 -0.0010315926489846622 -0.051664393686144061 0.010494662202623951 0.0046814808892070179 0.013760071603581831 0.094751320908539105 0.049984653041613439 0.045922774870390669 0.0058066029244690865 0.095203967777252652 0.059497835953527901 0.0072360591581609101 0.09323605025684234 -0.003580654022743076 0.087161699329789524 -0.033303771323968182 0.05644884042510772
leaf_weight=13.241542711853979 38.936345234513283 9.7957013696432131 12.582139894366263 11.347976118326185 15.808052644133566 14.998032391071318 38.544663041830063 9.9759344756603223 15.687475174665449 8.4466823339462263 18.530876025557518 17.5606252104044 32.193027392029762 9.6276819854974729 13.260475382208822 14.786136567592623 7.8705482333898535 11.755046233534811 21.694183275103562 40.269655019044883 15.457379534840586 16.726794198155403 12.531964182853697 12.740842387080194 9.6018914282321912 9.7616980969905836 9.7326069772243482 14.680862620472906 10.067580610513685 9.3111168742179853
leaf_count=35 159 36 37 37 56 49 140 34 60 31 55 54 108 34 55 54 27 40 57 123 48 58 33 38 33 26 34 40 41 28
internal_value=0.0245825 0.0321216 0.024975 -0.0177988 0.0292885 0.0524599 0.0199716 0.0412069 0.0264893 0.022645 0.0262813 0.011414 0.0368993 0.0322662 -0.0291867 -0.0267712 0.0471509 0.0522986 0.0587857 0.0656579 0.0459916 0.0492176 0.0420987 0.0532641 0.0407014 0.0506697 0.0321803 0.066011 -0.00724692 0.0257339
internal_weight=497.526 422.387 312.558 75.138 289.502 109.829 162.484 127.018 123.94 111.357 102.911 42.8758 60.035 27.1883 23.0562 63.7901 96.5875 81.5894 69.8344 61.9638 111.21 101.234 71.0958 54.369 41.837 32.2351 22.4734 30.1382 24.8537 41.5041
internal_count=1660 1369 1038 291 947 331 547 400 407 370 339 148 191 88 91 254 296 247 207 180 344 310 222 164 131 98 72 88 95 136
is_linear=0
shrinkage=0.05


Tree=4
num_leaves=31
num_cat=0
split_feature=0 12 4 2 2 12 4 6 12 2 10 4 0 7 3 2 12 10 6 4 6 4 8 2 0 12 10 6 11 11
split_gain=56.9749 20.3344 16.9374 16.0074 12.9823 12.3318 9.36786 8.70931 8.06906 12.6481 7.55335 9.00115 8.34587 16.4198 7.33374 6.9686 7.05372 6.3675 6.11809 5.59516 7.61519 6.41872 6.29825 5.57878 6.19387 5.07782 4.87997 4.84098 4.77846 6.93337
threshold=169.25000000000003 890392.30000000016 -0.022779161477791649 4596906.0000000009 504647.00000000006 1948.1000000000001 -0.0037664917009504494 0.022373184357541903 2471585.0000000005 2722063.0000000005 0.018878375113061053 0.010664309982893401 33.750000000000007 22.330000000000002 20.950000000000003 686570.50000000012 677350.70000000007 0.016071381643149404 0.0073937406040727009 -0.0054646440516004993 0.025000000000000005 -0.028486197409502596 42.810000000000009 262975.50000000006 77.050000000000011 25.700000000000003 0.013971040318146352 0.045575687853513507 0.061455462154064659 -0.49679205632211426
decision_type=2 2 2 2 2 2 2 2 2 2 2 2 2 2 2 2 2 2 2 2 2 2 2 2 2 2 2 2 2 2
left_child=1 4 -3 8 6 25 19 14 9 27 12 -12 13 -8 -5 -6 -17 -10 -13 20 21 -1 -23 24 -14 -2 -24 -4 29 -15
right_child=5 2 3 7 15 -7 10 -9 17 -11 11 18 23 28 -16 16 -18 -19 -20 -21 -22 22 26 -25 -26 -27 -28 -29 -30 -31
leaf_value=0.075824196520446058 -0.063712155810584634 0.059735750305892205 0.0035516010071233537 0.046125208262522109 0.082996179211835885 0.030780253132558999 0.054617656235195856 0.05795938144428029 0.0013206330700665523 0.056984328632649954 0.070590535808065583 0.043985387175701704 0.044631159834929032 -0.026153265661473486 -0.01228911627887274 0.062590328790653932 0.017635484916944284 -0.048072422623426675 -0.011861884490322315 0.067411408713865903 -0.003399268896437789 0.0502054801969192 0.04121924611009932 0.061902807967701257 -0.0054128196868245453 -0.020381450969886587 -0.0055796427540651117 -0.037964965448662388 -0.038806670127971177 0.034526587563042367
leaf_weight=12.792923271656035 7.6979700922965995 19.021252498030663 44.434110969305038 9.379529148340227 20.323409140110016 11.428880244493483 10.511401221156119 20.535398229956627 11.825037926435472 10.540027633309363 15.698581144213675 11.427085667848589 12.208308771252634 11.237872242927549 12.579194620251654 24.788961201906204 13.465803012251852 14.557820707559584 8.5908410102128965 20.385142251849174 9.7262631654739362 33.826600626111031 10.348913848400118 11.136501893401144 12.527786642313002 55.562893718481064 12.063882961869238 8.3392942249774915 14.362233012914656 8.101130813360216
leaf_count=35 34 55 159 29 54 37 31 60 43 32 45 35 38 43 46 70 44 60 31 58 34 101 32 32 45 220 42 33 56 26
internal_value=0.0232535 0.0303353 0.0156213 0.00927358 0.0384697 -0.0170187 0.0327831 0.0345522 -0.00270229 0.00697842 0.0231248 0.0422464 0.0145969 5.7789e-05 0.0126622 0.0593359 0.0467661 -0.025934 0.0200181 0.0440642 0.0380212 0.0438571 0.0365854 0.0325162 0.019286 -0.0256542 0.0160293 -0.00300888 -0.0169594 -0.000734405
internal_weight=499.425 424.735 151.212 132.19 273.524 74.6897 214.945 42.4941 89.6963 63.3134 115.802 35.7165 80.0852 44.2126 21.9587 58.5782 38.2548 26.3829 20.0179 99.1437 78.7586 69.0323 56.2394 35.8726 24.7361 63.2609 22.4128 52.7734 33.7012 19.339
internal_count=1660 1369 517 462 852 291 684 135 327 224 382 111 271 156 75 168 114 103 66 302 244 210 175 115 83 254 74 192 125 69
is_linear=0
shrinkage=0.05


Tree=5
num_leaves=31
num_cat=0
split_feature=12 7 9 0 10 5 2 12 2 5 9 2 0 10 2 0 4 13 4 1 12 0 4 5 5 10 10 13 8 12
split_gain=60.9184 15.1327 25.7951 10.7116 9.27293 11.6087 6.4436 10.3747 15.6208 9.25566 8.03528 6.42126 6.7134 7.39247 5.77785 5.49699 10.9968 9.85107 6.82527 8.21334 7.53464 6.80902 6.78958 5.218 5.10214 4.43805 6.62418 4.21281 4.18991 4.03727
threshold=599.60000000000014 6.5900000000000016 0.99367123916686506 170.12500000000003 0.0066091764842950004 -0.0040405524537172497 12660.000000000002 890392.30000000016 1493046.5000000002 -0.012591829184503999 0.98806884871407219 240.50000000000003 1080.1250000000002 0.0078947441590487017 794.50000000000011 24.550000000000004 -0.0044643746885898996 0.039229936160510709 -0.0065563235584899489 27.550000000000004 188489.50000000003 22.550000000000004 -0.013444307687010998 0.018095826387235003 -0.024721916636107948 0.015021335563927951 0.018147175912121404 0.017114275414563753 5.9350000000000014 9604290.8000000026
decision_type=2 2 2 2 2 2 2 2 2 2 2 2 2 2 2 2 2 2 2 2 2 2 2 2 2 2 2 2 2 2
left_child=3 2 -2 -1 5 -3 10 15 9 -9 -6 12 13 -5 -12 16 22 21 19 -17 -21 -18 -8 -11 -22 27 -27 -20 -4 -10
right_child=1 4 28 11 6 -7 7 8 29 23 14 -13 -14 -15 -16 18 17 -19 25 20 24 -23 -24 -25 -26 26 -28 -29 -30 -31
leaf_value=0.032976651180543715 0.04830413758941185 0.038376676636499157 -0.014662604050420622 -0.062744330996763062 0.050775721555776143 -0.016665748034458413 0.028341661139421694 0.026297896818060353 0.046134023424964074 -0.046757505186070761 0.036054507775621594 -0.076071431573011661 0.0034319332410753765 -0.016594833282593192 -0.013893271863584584 0.0747710530557021 0.052695811930020313 -0.035019601547521477 0.04837096604122057 -0.018395491746921271 0.058143030208148982 -0.0016192826451923627 0.082811195487610123 0.0013051731518338083 0.014635684382606881 0.019743550122936885 0.056916657881716973 0.078116684881301496 -0.060161202586309248 0.020903402617941061
leaf_weight=7.5928828865289679 14.500415191054342 17.609632253646851 9.4677539020776766 15.016249567270277 11.247821375727652 21.005964323878288 11.216623574495317 18.098443210124969 50.600825667381287 10.818760558962824 8.187200993299486 6.7374461889266959 15.411182716488836 20.556780412793159 19.773928999900818 8.9585339874029142 12.497331023216253 8.6029319167137128 19.995622426271439 8.9865061342716199 12.356926262378691 10.719267442822455 11.676814392209051 11.813507303595541 14.820679664611818 17.256143286824226 39.228217020630836 29.411615088582039 10.868688225746153 23.090264111757278
leaf_count=25 45 55 36 67 33 77 35 59 156 44 27 30 59 82 71 24 37 32 60 32 35 38 31 43 49 56 114 80 47 76
internal_value=0.022159 0.0289515 -0.00264849 -0.022852 0.0317176 0.00843491 0.0342195 0.0365626 0.0244936 -0.000355717 0.0150878 -0.0301959 -0.0241336 -0.0360757 0.000731763 0.0432752 0.0296967 0.010683 0.0481947 0.031911 0.0212937 0.0276181 0.0561239 -0.0216699 0.0344173 0.0551336 0.0455602 0.0660783 -0.0389791 0.0382283
internal_weight=498.125 432.81 34.8369 65.3145 397.974 38.6156 359.358 320.149 114.422 40.7307 39.209 57.7217 50.9842 35.573 27.9611 205.727 54.713 31.8195 151.014 45.1226 36.1641 23.2166 22.8934 22.6323 27.1776 105.892 56.4844 49.4072 20.3364 73.6911
internal_count=1655 1392 128 263 1264 132 1132 1001 378 146 131 238 208 149 98 623 173 107 450 140 116 75 66 87 84 310 170 140 83 232
is_linear=0
shrinkage=0.05


Tree=6
num_leaves=31
num_cat=0
split_feature=12 1 5 3 0 6 4 2 12 1 8 11 2 4 5 5 14 4 11 4 10 6 4 8 10 3 10 14 12 4
split_gain=54.7844 13.4961 27.2461 11.9239 10.0447 8.68154 8.54202 10.289 7.70595 5.99853 8.75049 7.52224 5.63346 5.62622 9.29634 8.79834 6.35411 6.1148 5.70295 5.45837 4.8457 6.69177 6.09063 5.90699 9.81733 8.47346 8.42709 6.32208 5.55154 4.15629
threshold=599.60000000000014 16.450000000000003 -0.016701534170153347 174.25000000000003 474.12500000000006 -0.073644135720010634 0.0086458203562975022 23778.000000000004 10667132.700000001 52.850000000000001 55.815000000000012 -0.55691225012572831 74438.500000000015 0.012605264551665652 0.0012962682930926504 0.055615036878420107 10.500000000000002 0.022560696289509803 0.72992484962740312 -0.0012650226439852997 0.035786032274621508 0.041877409243021059 -0.018867924528301747 29.820000000000004 0.021096962110490555 22.750000000000004 0.0093647111581746517 8.5000000000000018 352741.50000000006 0.016618222740798456
decision_type=2 2 2 2 2 2 2 2 2 2 2 2 2 2 2 2 2 2 2 2 2 2 2 2 2 2 2 2 2 2
left_child=3 2 -2 -1 -5 -3 8 -8 9 20 -11 19 -13 -9 -15 16 17 -16 -17 -12 21 22 -7 24 25 -24 -27 -28 -25 -4
right_child=1 5 29 4 -6 6 7 13 -10 10 11 12 -14 14 15 18 -18 -19 -20 -21 -22 -23 23 28 -26 26 27 -29 -30 -31
leaf_value=0.021580500201761974 0.057549875009296564 0.066794873735471383 -0.01308570271523344 -0.063292190849108559 -0.016839723832179576 0.056738224724278453 -0.0049031538087443228 0.070722559367053781 -0.017228462520468963 -0.027273019040057841 -0.022050288295724339 -0.0059653782835786002 0.03685842023984174 -0.0033128187925069415 0.024201364467665798 0.043737664861203063 0.084044893151847003 0.068041915755674962 -0.010560210759566506 0.026676974913643705 0.065208414999440092 -0.009036298052908516 0.045504517979812156 0.027295597298094922 -0.030905628451462615 -0.015053659251942953 0.0029218278057490414 0.051570450802027205 0.074014978268794815 -0.055397287541108543
leaf_weight=12.678270816802977 15.561659172177313 15.835713654756544 26.421150088310242 17.549550145864487 34.545125767588615 21.886779397726059 11.036584034562109 18.655063107609749 10.809213146567343 10.391308844089506 14.302512541413309 8.9977505058050138 52.426290735602379 10.624536931514738 16.337434932589534 10.463508456945421 16.154965594410896 15.499509200453756 8.9913265556097013 9.6080890297889692 10.239068597555159 10.393761128187178 34.802693143486977 13.661412313580515 8.0488890707492811 17.028063088655472 12.062392532825472 14.961376845836638 11.894972234964369 7.4378956258296958
leaf_count=43 45 43 101 80 140 62 39 52 40 38 53 32 161 37 52 31 43 43 31 32 29 37 105 43 30 63 42 44 33 31
internal_value=0.0209919 0.0273863 0.00278816 -0.0219054 -0.0324885 0.0305429 0.0289883 0.0408347 0.0241067 0.0258889 0.016048 0.0213233 0.0305853 0.0460535 0.0401588 0.0470067 0.0585046 0.0455447 0.0186431 -0.00247002 0.0319673 0.0296158 0.0326061 0.0279095 0.0216953 0.0270644 0.0124961 0.0298555 0.0490407 -0.0223804
internal_weight=499.307 434.534 49.4207 64.7729 52.0947 385.113 369.278 107.763 261.515 250.705 95.726 85.3346 61.424 96.7263 78.0713 67.4467 47.9919 31.8369 19.4548 23.9106 154.979 144.74 134.347 112.46 86.9034 78.8545 44.0518 27.0238 25.5564 33.859
internal_count=1655 1392 177 263 220 1215 1172 328 844 804 316 278 193 289 237 200 138 95 62 85 488 459 422 360 284 254 149 86 76 132
is_linear=0
shrinkage=0.05


Tree=7
num_leaves=31
num_cat=0
split_feature=12 1 9 3 0 6 10 5 14 8 1 12 6 8 10 11 10 11 13 13 10 9 0 9 0 13 11 6 10 10
split_gain=49.3114 12.0617 31.3309 10.8976 9.48255 7.77452 6.63083 10.9657 6.50046 6.44107 13.935 10.9286 11.6821 10.7986 6.89546 5.29641 6.58999 6.55917 4.58384 4.56994 4.44867 4.3474 4.20363 3.98907 4.14501 3.7506 3.57826 7.25666 5.87076 8.92477
threshold=599.60000000000014 16.450000000000003 0.99225269767603008 174.25000000000003 474.12500000000006 -0.073644135720010634 0.0066091764842950004 -0.0040405524537172497 6.5000000000000009 136.52500000000001 23.150000000000002 106625.70000000001 -0.022684391080617497 58.185000000000009 0.011789541465141601 0.44419794521772915 0.013971040318146352 2.4079407139945261 0.030990601632708951 0.022514150544901454 0.015626695266771802 0.99908757225120748 83.850000000000009 0.99977299538296116 1080.1250000000002 0.012129418867714953 -0.78672984599334683 0.0078069828645402515 0.016071381643149404 0.018342565303896302
decision_type=2 2 2 2 2 2 2 2 2 2 2 2 2 2 2 2 2 2 2 2 2 2 2 2 2 2 2 2 2 2
left_child=3 2 -2 -1 -5 -3 7 -7 9 10 15 -12 -13 18 -11 16 21 -17 20 -16 -14 -8 26 -6 -25 -9 27 -10 -28 -30
right_child=1 5 -4 4 23 6 8 25 22 14 11 12 13 -15 19 17 -18 -19 -20 -21 -22 -23 -24 24 -26 -27 28 -29 29 -31
leaf_value=0.020395185909604305 0.050920678997989924 0.063115514044517762 -0.030245107712744676 -0.061636717681108968 -0.041448516443492497 0.036985327857284471 0.042515352025987441 -0.041372027766067736 0.048886594081091569 0.065308354652998085 -0.032504607053953319 -0.025864009562565838 0.048913270506003914 -0.015031520209712872 0.00013552903432717845 -0.016836609889632734 0.019941742729695962 0.041039601313724909 0.065521474463012375 0.043972121559317928 0.00083675056538759149 0.085080291328384378 0.0059724226261588685 -0.026814004840062845 0.015113803858641583 0.0014456814159919649 0.055236721161519148 -0.011595585713144677 -0.0021309109545624653 0.041494497949797642
leaf_weight=12.742629557847975 19.990317612886429 15.918579652905462 29.340126410126686 17.13053472340107 10.686218097805975 17.518983229994774 12.619969770312311 8.8418421149253863 10.145008996129038 16.496533289551735 16.607201412320137 14.139078065752981 10.292416304349905 11.472004786133764 11.268076047301294 8.928891599178316 14.357519492506979 10.836928024888037 12.260182991623877 12.586096405982969 9.0362806469202024 11.433812931179999 10.236250579357145 11.146650403738024 12.510797619819639 12.1318172365427 51.450355678796768 9.702131971716879 14.356389075517653 63.925406366586685
leaf_count=43 59 43 118 80 46 54 38 35 30 47 62 51 31 42 39 32 46 33 34 38 31 30 34 47 47 42 147 35 49 192
internal_value=0.0199025 0.0259288 0.00264594 -0.0210024 -0.0312506 0.0289 0.0274305 0.00778536 0.0297071 0.0229712 0.0176265 0.00320235 0.0135694 0.0265173 0.0404535 0.0359258 0.0467479 0.014895 0.0416065 0.0232649 0.0264372 0.0627483 0.0369707 -0.016094 -0.00464127 -0.0166049 0.0390921 0.0193203 0.0421168 0.0334939
internal_weight=500.109 435.892 49.3304 64.2168 51.4742 386.562 370.643 38.4926 332.151 172.335 131.984 73.8072 57.2 43.0609 40.3507 58.1771 38.4113 19.7658 31.5889 23.8542 19.3287 24.0538 159.816 34.3437 23.6574 20.9737 149.579 19.8471 129.732 78.2818
internal_count=1655 1392 177 263 220 1215 1172 131 1041 554 430 251 189 138 124 179 114 65 96 77 62 68 487 140 94 77 453 65 388 241
is_linear=0
shrinkage=0.05


Tree=8
num_leaves=31
num_cat=0
split_feature=8 1 9 12 10 5 12 2 2 13 1 14 13 0 11 10 8 13 12 11 11 13 0 10 10 10 2 3 0 0
split_gain=44.4606 11.4015 28.2351 7.85649 5.04772 9.38953 6.21983 13.4225 6.31821 8.34402 7.48886 8.98882 10.1068 6.64715 6.2 5.85701 7.41096 5.37682 4.6991 4.67928 6.17931 4.26798 4.26452 8.85611 4.18819 4.13833 3.73855 3.67434 4.96678 3.64754
threshold=170.22500000000005 16.450000000000003 0.99225269767603008 434616.70000000007 0.0063931680809943504 -0.004418271733472149 890392.30000000016 1421597.0000000002 195387.50000000003 0.017543859649122754 23.150000000000002 5.5000000000000009 0.039012975153152454 24.550000000000004 0.2150070044789755 0.013340320808703151 27.715000000000003 0.023899196898366105 10667132.700000001 -0.3389355075654546 0.76323440974220691 0.031707626815955757 1080.1250000000002 0.0078947441590487017 0.0075832268702139506 0.010826716115813602 241292.50000000003 176.87500000000003 474.12500000000006 45.250000000000007
decision_type=2 2 2 2 2 2 2 2 2 2 2 2 2 2 2 2 2 2 2 2 2 2 2 2 2 2 2 2 2 2
left_child=1 2 -1 22 5 -3 8 17 9 13 14 12 -12 -6 -11 -10 -17 -8 -9 -13 -21 -19 23 -2 -24 -15 -7 -25 -29 -18
right_child=3 4 -4 -5 6 26 7 18 15 10 11 19 -14 25 -16 16 29 21 -20 20 -22 -23 24 27 -26 -27 -28 28 -30 -31
leaf_value=0.048033869722110982 -0.058207796776670789 0.039514872167713655 -0.029004078212155782 0.033351201890606287 -0.024284224932155735 -0.03549551871481111 -0.028230716458248012 0.039961504802264333 0.059403776376155383 0.0809779499088253 0.030027789820980356 0.050810800616573421 -0.039594646381530159 0.044965676327484411 0.028696721286497764 -0.002693879051605336 0.059687139438432957 0.033709003856370899 0.010728114628658433 -0.0028448917232112604 0.044452973888605474 -0.012936438601699577 0.017876405042137493 0.0067660296207753354 -0.0302370210078301 0.0027269782421972949 0.010335152380940273 -0.054508358670777718 -0.0033433904250706917 0.032141070544639418
leaf_weight=20.128373876214027 17.39919126033783 14.235389575362204 29.072688296437263 7.1377349346876136 11.755472958087919 9.875196725130083 15.025124698877333 52.135726854205132 37.920824453234673 13.776042908430101 11.831490963697435 30.780746385455132 9.3177138268947584 10.571003884077074 9.6381883472204191 11.032693907618521 19.239969864487648 10.298648715019228 18.669129520654678 12.885745003819467 14.879537388682364 9.3616907447576505 11.217233866453173 12.875093311071398 7.5792168974876395 12.845410525798796 8.0990865975618345 9.0959083139896411 9.9118512570857984 32.014824435114861
leaf_count=59 80 43 118 22 44 39 58 158 104 35 37 89 35 32 30 37 53 33 62 43 44 33 42 46 31 44 27 41 40 96
internal_value=0.0188813 0.0251471 0.00251249 -0.0165549 0.0281074 0.00918015 0.0298797 0.0197704 0.0343513 0.0274234 0.0345968 0.0272929 -0.000645795 0.006394 0.059457 0.0439114 0.0344796 -0.0057119 0.0322535 0.0373856 0.0225022 0.0114978 -0.0217873 -0.0295158 -0.00152418 0.021795 -0.0148445 -0.0138579 -0.0278277 0.0424813
internal_weight=500.607 425.391 49.2011 75.2162 376.19 32.2097 343.98 105.49 238.49 138.281 103.109 79.6952 21.1492 35.1719 23.4142 100.208 62.2875 34.6855 70.8049 58.546 27.7653 19.6603 68.0785 49.282 18.7965 23.4164 17.9743 31.8829 19.0078 51.2548
internal_count=1655 1353 177 302 1176 109 1067 344 723 433 313 248 72 120 65 290 186 124 220 176 87 66 280 207 73 76 66 127 81 149
is_linear=0
shrinkage=0.05


Tree=9
num_leaves=31
num_cat=0
split_feature=12 7 9 3 1 10 11 9 9 10 10 10 10 11 4 4 4 11 12 12 2 9 5 8 5 9 0 10 5 5
split_gain=40.3396 9.91806 18.3482 9.44329 8.78276 6.4276 6.32852 9.25874 5.74051 5.10842 6.75684 6.05602 7.16117 5.59369 5.35347 4.88968 9.94991 4.54834 4.50177 5.52991 4.34296 11.3365 5.12615 4.14555 3.88826 3.68606 4.03379 3.67078 3.54275 3.89798
threshold=599.60000000000014 6.5900000000000016 0.99367123916686506 174.25000000000003 477.50000000000006 0.0070088705232238509 -0.88559395553193021 1.0054167368425537 0.94968524224394402 0.015904057130867604 0.018342565303896302 0.013425220412875052 0.012628028349598202 0.037456321788431259 0.0013012499449700002 -0.0085381299946237482 -0.020408163265306044 -0.73038031094807521 204647.30000000002 928525.10000000009 348138.50000000006 1.0146553325575118 0.028172657180112155 5.9350000000000014 -0.019926936771187596 0.99977299538296116 1080.1250000000002 0.027191180729010705 0.013245097657011403 -0.004535170711641349
decision_type=2 2 2 2 2 2 2 2 2 2 2 2 2 2 2 2 2 2 2 2 2 2 2 2 2 2 2 2 2 2
left_child=3 2 -2 -1 -5 18 7 -7 -8 11 14 12 17 -13 -11 16 24 -10 -3 -20 22 -22 -17 -4 -12 -6 -27 -23 29 -19
right_child=1 5 23 4 25 6 8 -9 9 10 15 13 -14 -15 -16 20 -18 28 19 -21 21 27 -24 -25 -26 26 -28 -29 -30 -31
leaf_value=0.018887831656878195 0.039463007894505908 -0.01840933263648822 -0.0098339348136086257 -0.063196919347745614 -0.040738825264901829 0.030757210552003224 0.068249926901977329 -0.035969285401925066 -0.00076480163909240276 -0.019376296599526308 0.053615511564248354 0.065330303890974717 -0.0057789539545413139 0.03083940502661699 0.021007305631907863 0.056662054352780357 -0.011486046808602384 0.038959987484791125 0.031132106109902635 -0.013694076380139348 -0.011833598195276435 0.056510966196212223 0.018203757036693951 -0.055985242653789485 0.012639650019684305 -0.025455610694710053 0.014197610569165523 0.023051419253407229 0.051970996219800461 0.013080239329251529
leaf_weight=12.815553382039068 14.830335363745688 12.123074695467947 9.1779752820730227 13.784250631928442 10.887549161911009 11.713830858469011 9.2450344413518888 9.3469747602939588 9.0597443580627424 15.584754496812819 13.367743819952013 25.894616857171059 13.505134940147398 21.528177261352539 17.334845945239067 29.995118275284767 20.945218130946159 42.616014406085014 22.338093832135201 9.9423031061887723 15.383088469505308 16.802597805857658 12.184338793158529 10.35630741715431 10.212369069457052 13.084453687071802 12.579579547047613 16.005052343010902 26.018210306763649 22.092726305127144
leaf_count=43 45 45 36 68 48 37 24 36 31 56 37 71 46 66 55 85 74 127 69 36 55 47 39 47 33 57 47 50 73 72
internal_value=0.0179262 0.0233172 -0.00246784 -0.0194308 -0.0291868 0.0255147 0.0277353 0.00114339 0.0293933 0.0282999 0.0221984 0.034671 0.0283914 0.0496727 0.00188895 0.0271546 0.0135927 0.033016 0.00756931 0.0173257 0.0338366 0.023582 0.0455526 -0.0343015 0.0358692 -0.016361 -0.00601904 0.0401879 0.0363893 0.0301242
internal_weight=500.755 437.604 34.3646 63.1514 50.3358 403.239 358.836 21.0608 337.775 328.53 167.815 160.715 113.292 47.4228 32.9196 134.896 44.5253 99.7867 44.4035 32.2804 90.3702 48.1907 42.1795 19.5343 23.5801 36.5516 25.664 32.8077 90.727 64.7087
internal_count=1655 1392 128 263 220 1264 1114 73 1041 1017 531 486 349 137 111 420 144 303 150 105 276 152 124 83 70 152 104 97 272 199
is_linear=0
shrinkage=0.05


Tree=10
num_leaves=31
num_cat=0
split_feature=12 11 9 8 11 4 11 8 9 12 14 7 9 11 4 12 13 13 13 2 1 8 13 13 2 9 12 8 11 11
split_gain=27.6825 10.4849 8.6114 10.399 8.24861 8.20024 7.34216 10.9471 7.63924 7.08425 7.05187 8.26117 9.85426 6.36966 5.92589 5.29119 8.25441 7.98866 7.00456 6.15481 5.27133 4.78146 4.0883 4.30188 5.98875 3.60992 5.00304 3.34223 3.69876 4.64819
threshold=362.60000000000008 -0.89332033410516243 0.97786987606780784 6.2150000000000007 2.2231810317028016 1.0000000180025095e-35 0.3851667507105529 58.88000000000001 1.0067302828757148 176107.10000000003 10.500000000000002 24.870000000000005 1.0115498053288305 16.250379045000546 -0.006024096385542149 121884.70000000001 0.016666666666666653 0.034522485301128204 0.030293198041413453 165818.50000000003 24.050000000000004 5.9350000000000014 0.018260209137977355 0.026080288076820404 443247.00000000006 0.9907055298236308 928525.10000000009 175.65000000000003 0.53044789704759365 -0.58099448034971568
decision_type=2 2 2 2 2 2 2 2 2 2 2 2 2 2 2 2 2 2 2 2 2 2 2 2 2 2 2 2 2 2
left_child=5 -2 9 21 6 27 8 10 15 -3 11 -8 -13 22 -10 16 -5 18 19 -17 -18 -4 -6 -24 -25 -21 -27 -1 29 -29
right_child=1 2 3 4 13 -7 7 -9 14 -11 -12 12 -14 -15 -16 17 20 -19 -20 25 -22 -23 23 24 -26 26 -28 28 -30 -31
leaf_value=0.0024056157180608675 -0.015445015097625006 0.0093998510391672188 0.0087705388797560437 -0.006544990908031143 0.021314965921232887 0.024209128318087466 0.0019269952984282902 0.035390571881222486 -0.00047822029165878519 0.053241799789511782 0.02061798260722196 -0.079166788230215321 -0.0036577362309906446 0.0055044177798725339 0.040268889962223442 -0.01276998997822882 0.021677798526359628 -0.024976693780228234 0.052961582487158113 0.03928109642782459 0.069680226000267284 -0.037989171152665951 0.076387034178986013 0.0095355758427030177 0.059101012426083704 0.027325322413518861 -0.012846006629017234 -0.026101954024440155 -0.013023615243546623 -0.071319185467303467
leaf_weight=9.4819193184375745 20.269867673516273 12.576505735516546 10.918967962265016 9.8711844682693464 14.107524484395979 10.447536453604696 19.660684898495674 19.32560732960701 10.35632564127445 34.464116454124451 14.692737579345701 9.6403424590826052 7.8304307013750067 13.112654909491537 64.46043735742569 22.045464381575584 10.39927960932255 15.0183919519186 10.43841168284416 15.215661972761152 12.708117216825483 10.949476420879362 12.877014249563215 9.5605503916740435 16.808599278330803 17.579171240329746 13.862890288233755 15.065927997231482 17.580885097384453 9.1263363659381884
leaf_count=35 74 40 40 35 45 39 67 59 36 95 46 39 26 44 192 77 32 54 31 45 34 46 34 31 46 54 51 66 75 44
internal_value=0.0151489 0.0196552 0.021397 0.018778 0.0209302 -0.0161641 0.0170858 0.00327377 0.0219519 0.0415205 -0.00870281 -0.0203049 -0.0453235 0.0367267 0.0346286 0.014492 0.0317276 0.00845546 0.0147998 0.00900164 0.0480772 -0.0146419 0.0444001 0.0526983 0.0411303 0.0192886 0.00961367 -0.0243935 -0.0304765 -0.0431598
internal_weight=490.453 428.75 408.481 361.44 339.571 61.7026 273.105 71.1498 201.955 47.0406 51.8242 37.1315 17.4708 66.4663 74.8168 127.139 32.9786 94.16 79.1416 68.7032 23.1074 21.8684 53.3537 39.2462 26.3691 46.6577 31.4421 51.2551 41.7731 24.1923
internal_count=1632 1373 1299 1164 1078 259 878 237 641 135 178 132 65 200 228 413 101 312 258 227 66 86 156 111 77 150 105 220 185 110
is_linear=0
shrinkage=0.05


Tree=11
num_leaves=31
num_cat=0
split_feature=2 6 4 1 11 3 13 10 10 8 0 6 4 6 13 13 6 11 14 6 10 6 4 10 2 11 6 11 11 13
split_gain=24.4914 11.1448 8.26793 7.12548 7.14348 6.43902 6.59096 5.68054 6.14536 4.79512 6.8586 5.06658 8.58459 7.81495 9.64738 7.40183 5.73511 10.1742 6.11202 5.27918 5.71203 7.50024 4.76261 4.50194 8.77377 4.375 4.94804 4.67261 4.13751 6.37476
threshold=2329.0000000000005 -0.073644135720010634 1.0000000180025095e-35 16.450000000000003 -0.88559395553193021 5.9500000000000011 0.033311993171148004 0.020746739688153052 0.012184957906127001 22.240000000000002 21.750000000000004 0.0042109929078014011 -0.011787864752200049 -0.011757793599225748 0.026711259754738006 0.013544087073498802 -0.018674152601478495 -0.55691225012572831 2.5000000000000004 0.084909585434312762 0.020058221518397552 0.049028850906631255 -1.0000000180025095e-35 0.020922116752640805 249898.00000000003 0.029126258333799403 0.017257053291536106 1.8432255342862005 1.1901751061608004 0.019607843137254954
decision_type=2 2 2 2 2 2 2 2 2 2 2 2 2 2 2 2 2 2 2 2 2 2 2 2 2 2 2 2 2 2
left_child=2 -2 7 5 -5 -3 -7 8 -1 10 28 13 -13 15 -15 -11 17 -17 -19 20 21 25 -9 24 -20 26 -14 -27 29 -6
right_child=1 3 -4 4 9 6 -8 22 -10 11 -12 12 19 14 -16 16 -18 18 23 -21 -22 -23 -24 -25 -26 27 -28 -29 -30 -31
leaf_value=-0.016280881720467381 0.062459457411361635 0.02518808597308065 0.018333729633330288 -0.020019253883456104 0.050449466938571566 0.0049300406401038997 -0.044475823214153755 0.033406682918178547 -0.056007028587660726 -0.015944571754242659 0.07120494019702743 -0.016307961301443723 0.067611876079123542 0.0096898209123853548 -0.039804552035988927 -0.023470205481292323 0.05086426454863039 0.063478087365040528 0.058029295498148385 -0.001069798073449464 0.050294159110342879 -0.014291331516340385 -0.020585750454577927 -0.0031274000334084646 0.006901988276979811 -6.436154069741752e-05 0.028135595838042378 0.038830999838116484 0.054187597616900555 0.0046761265351374275
leaf_weight=34.682789534330368 14.537848711013792 14.820189163088797 19.526800632476807 10.685437083244322 10.886942684650419 16.226978391408924 11.558972939848898 8.2515350878238678 13.533668547868727 12.137711390852926 10.507339254021643 10.987571254372595 13.70445244014263 36.903463095426559 13.427945613861082 11.630233854055396 18.013025611639023 9.9315581768751198 15.495686739683149 12.374758318066595 34.209580034017563 10.171247884631155 8.0873783379793167 14.296048775315283 18.301828116178513 16.18325532972813 18.864220052957535 14.767642959952353 10.453230485320089 25.242868676781654
leaf_count=147 38 49 70 39 31 60 47 28 60 43 28 39 38 122 49 41 51 27 43 41 99 35 34 47 59 54 58 43 29 83
internal_value=0.0143888 0.0194718 -0.0101743 0.0178766 0.020232 -0.00142709 -0.0156228 -0.0187974 -0.0274314 0.0215027 0.0347149 0.0188222 0.0259975 0.012549 -0.00351481 0.0206498 0.0257163 0.019213 0.0277681 0.0298622 0.0334097 0.0255714 0.0066817 0.0203939 0.0303431 0.0319546 0.0447467 0.0184938 0.0264842 0.0184689
internal_weight=490.402 406.32 84.0822 391.782 349.176 42.6061 27.786 64.5554 48.2165 338.491 57.0904 281.4 131.263 150.138 50.3314 99.8061 87.6684 69.6554 58.0251 120.275 107.9 73.6908 16.3389 48.0936 33.7975 63.5196 32.5687 30.9509 46.583 36.1298
internal_count=1632 1293 339 1255 1099 156 107 269 207 1060 171 889 407 482 171 311 268 217 176 368 327 228 62 149 102 193 96 97 143 114
is_linear=0
shrinkage=0.05


Tree=12
num_leaves=31
num_cat=0
split_feature=3 6 11 0 5 8 4 2 2 13 0 13 11 4 1 6 6 4 6 6 4 11 13 8 0 13 3 1 2 13
split_gain=22.1163 10.4014 8.25996 6.28009 10.8033 7.11622 6.02225 5.46111 6.5239 4.81638 4.74408 4.51999 4.79714 5.53159 4.19984 4.18445 9.32725 7.63144 3.74868 4.62737 5.29282 4.84184 3.76407 4.47462 3.85925 3.71395 3.65866 6.321 3.31635 6.79654
threshold=173.87500000000003 -0.073644135720010634 2.4079407139945261 18.150000000000002 -0.016359986617597747 22.370000000000008 1.0000000180025095e-35 787426.00000000012 1880440.0000000002 0.015559878945092852 21.750000000000004 0.0083449396471681515 -0.80350701843868844 0.0040165123784582013 197.25000000000003 0.012770564731677652 -0.0044346116027531987 0.019292803970223305 0.084909585434312762 0.0038170163170163003 -0.022779161477791649 0.50119614480734564 0.030495601968458054 43.190000000000005 58.95000000000001 0.026080288076820404 495.12500000000006 181.25000000000003 77354.500000000015 0.018817905258583203
decision_type=2 2 2 2 2 2 2 2 2 2 2 2 2 2 2 2 2 2 2 2 2 2 2 2 2 2 2 2 2 2
left_child=1 -1 3 4 -3 10 26 -6 -9 -4 -5 -7 13 -13 -8 16 -11 -17 19 20 -14 22 23 -21 -25 -23 27 -2 29 -22
right_child=6 2 9 5 7 11 14 8 -10 15 -12 12 18 -15 -16 17 -18 -19 -20 21 28 25 -24 24 -26 -27 -28 -29 -30 -31
leaf_value=0.059532620596720577 -0.036797213652836516 0.025669099238305116 0.00065501023095318272 0.02385062355231083 0.010539411237409688 -0.01226222492253844 -0.011839437552923554 -0.068941543559799728 -0.012952940854537649 0.04186048213780217 0.061113641458939619 -0.022846094710177983 0.040819236395080213 0.024994027378218681 0.038381547084084977 0.083527879947185191 -0.014255551610571671 0.027334750363371737 -0.011083931931973325 0.0084267158046672699 -0.013965384928461123 0.02662327888721791 0.056140025145820296 0.064523028205255434 0.026383253929910196 -0.014725120699366904 -0.033120943947487942 0.017643598041215416 0.0019586413521203634 0.040809701628971552
leaf_weight=14.491058215498922 9.4191392809152621 19.953859001398087 10.623290479183195 26.632743954658508 9.3149179518222827 16.683520138263702 8.3666810840368289 8.6395415812730807 13.080030977725981 27.246248722076412 12.574308142066 16.639722079038624 13.90487629175186 9.4875237047672254 8.2855446338653547 11.214293628931047 10.168463006615641 13.099914640188215 11.012450307607649 18.376946225762367 8.3887789398431796 11.669072970747949 15.457034125924109 10.307370305061342 18.604076519608498 10.158407583832739 29.015116930007935 12.287158474326132 67.867399990558624 17.430153340101242
leaf_count=38 42 62 36 82 33 60 31 38 51 79 34 61 40 31 29 29 35 39 38 60 30 36 43 28 58 35 129 50 224 51
internal_value=0.0136659 0.0179035 0.0164269 0.0131286 -0.00303357 0.0160182 -0.0129407 -0.0214882 -0.0352239 0.0317521 0.0358014 0.012865 0.0146932 -0.00547403 0.0131487 0.0371037 0.0266094 0.0532524 0.0172865 0.0189124 0.0120333 0.0276637 0.0347199 0.0277183 0.0399807 0.00737993 -0.021506 -0.00598022 0.00776095 0.0230128
internal_weight=490.4 423.026 408.535 336.183 50.9883 285.194 67.3736 31.0345 21.7196 72.3522 39.2071 245.987 229.304 26.1272 16.6522 61.7289 37.4147 24.3142 203.177 192.164 107.591 84.5729 62.7454 47.2884 28.9114 21.8275 50.7214 21.7063 93.6863 25.8189
internal_count=1632 1351 1313 1095 184 911 281 122 89 218 116 795 735 92 60 182 114 68 643 605 345 260 189 146 86 71 221 92 305 81
is_linear=0
shrinkage=0.05


Tree=13
num_leaves=31
num_cat=0
split_feature=2 6 4 11 8 13 9 8 8 11 2 11 11 5 13 4 2 4 9 13 13 9 6 13 4 13 6 11 9 2
split_gain=20.0718 9.22289 6.72501 5.37443 5.50708 5.75928 4.72899 4.71256 4.59523 4.51824 6.29638 4.35808 6.12658 6.25308 6.06416 5.78468 5.26444 4.22785 3.90853 3.82448 4.2013 8.16973 6.47127 4.95517 5.71756 4.29284 5.72027 7.57828 5.17017 5.01193
threshold=2329.0000000000005 -0.073644135720010634 1.0000000180025095e-35 -0.89332033410516243 6.1350000000000007 0.034455776806432407 1.0067302828757148 5.9350000000000014 175.65000000000003 0.53044789704759365 3.5000000000000004 4.7561472513450411 0.39429187614864208 0.027305428384565154 0.024793388429752056 0.027576700967228255 1298388.0000000002 0.010468589534854503 1.0111392173724802 0.0083449396471681515 0.037370271625340755 0.97786987606780784 -0.012964094728800498 0.030794098143236002 -0.011387259442214548 0.026711259754738006 -0.0050420310487424491 -0.54269493591016982 0.98385912557434518 170570.00000000003
decision_type=2 2 2 2 2 2 2 2 2 2 2 2 2 2 2 2 2 2 2 2 2 2 2 2 2 2 2 2 2 2
left_child=2 -2 8 -3 5 7 19 -5 -1 10 -10 12 13 -8 -15 16 -14 -16 -4 -6 21 -21 -22 25 -25 26 28 -28 -23 -29
right_child=1 3 18 4 6 -7 11 -9 9 -11 -12 -13 15 14 17 -17 -18 -19 -20 20 22 23 -24 24 -26 -27 27 29 -30 -31
leaf_value=0.0029278403341400148 0.05683831689442758 -0.017233594486111663 0.040327366229099937 0.0039175265860176963 -0.016243799025299141 0.027078888880071424 0.049357378014182753 -0.052104966188148971 -0.0017236104476994894 -0.0075911279004610647 -0.056184465855022785 0.048520057748308074 0.010262481658846854 -0.0074480927756397364 0.0092352220907325391 0.032519440227595793 -0.036724915599711118 0.048670592863711226 -0.0043407413157069037 0.054696724170602479 0.014417832822825891 0.035647472148232516 -0.026908213339960296 0.0066295206059463381 0.057846595296212888 -0.013395934217214077 0.055049250732571858 -0.008973354103123837 -0.0017712226480269177 0.027777765763032147
leaf_weight=19.523336976766586 14.420809298753737 11.71433351933956 9.0462319701910037 7.3103722035884875 9.7723095715045911 8.282679930329321 28.610056445002556 7.7158007919788361 7.5591383576393154 18.746183425188065 17.814349219202995 18.892036646604538 15.712150469422342 14.265705257654188 11.485208064317705 13.965888500213621 9.6054030507802945 16.648609593510628 10.67801822721958 14.886273369193075 32.075826451182365 11.248543217778197 13.442939162254332 9.0319893062114733 13.736148387193678 14.493747010827063 16.78047901391983 14.111396104097372 51.478600889444351 27.07856073975563
leaf_count=71 38 43 29 27 35 27 81 35 33 80 85 53 50 48 38 41 35 47 41 41 100 33 48 30 39 50 49 49 172 84
internal_value=0.0129868 0.0175675 -0.00936341 0.016124 0.0171507 -0.00639702 0.0186867 -0.0248495 -0.0172692 -0.0262065 -0.0399598 0.0263306 0.0225298 0.0312948 0.0191067 0.00668605 -0.00756439 0.0325717 0.0161456 0.0143583 0.0157278 0.0192869 0.00221312 0.0159498 0.0375291 0.0123155 0.015403 0.0267258 0.00493888 0.0151871
internal_weight=490.133 406.766 83.3673 392.345 380.631 23.3089 357.322 15.0262 63.643 44.1197 25.3735 129.185 110.293 71.0096 42.3995 39.2834 25.3176 28.1338 19.7243 228.137 218.365 172.846 45.5188 157.959 22.7681 135.191 120.698 57.9704 62.7271 41.19
internal_count=1632 1293 339 1255 1212 89 1123 62 269 198 118 393 340 214 133 126 85 85 70 730 695 547 148 506 69 437 387 182 205 133
is_linear=0
shrinkage=0.05


Tree=14
num_leaves=31
num_cat=0
split_feature=12 6 11 9 12 2 4 12 6 0 14 7 13 11 4 13 11 1 6 11 13 14 14 4 6 6 2 9 1 9
split_gain=18.7116 8.71807 7.11799 7.15165 10.1138 14.2378 10.2695 7.95409 7.80025 10.1469 6.43232 7.12636 6.07057 7.00657 5.67302 5.46315 5.17607 7.05489 4.66996 6.0884 8.82664 7.80233 7.74805 4.28647 6.12652 6.09341 3.8194 3.21424 6.66953 4.06853
threshold=362.60000000000008 -0.073644135720010634 2.4079407139945261 0.98681312311616065 1013982.6000000002 662074.00000000012 -0.0090771765998351982 12706.700000000003 -0.0090703414232825488 15.550000000000002 1.0000000180025095e-35 23.050000000000001 0.015873015873015855 0.41879036223835048 1.0000000180025095e-35 0.030718214863980953 7.7652339854393206 24.550000000000004 -0.020480993510909346 0.029126258333799403 0.011714175936768103 6.5000000000000009 10.500000000000002 0.0081124956124955516 0.011553578049684902 0.018223329182233204 3854778.5000000005 0.98139941018501753 52.850000000000001 0.97709642202619207
decision_type=2 2 2 2 2 2 2 2 2 2 2 2 2 2 2 2 2 2 2 2 2 2 2 2 2 2 2 2 2 2
left_child=14 -2 3 27 6 -6 -5 -8 15 -10 11 -9 -11 26 -1 -7 -4 -18 -12 20 -20 -21 -23 24 -22 -25 -14 28 29 -3
right_child=1 2 16 4 5 8 7 10 9 12 18 -13 13 -15 -16 -17 17 -19 19 21 23 22 -24 25 -26 -27 -28 -29 -30 -31
leaf_value=-0.020913051424713589 0.054344000074283152 0.043113601823467233 0.038964926127872113 -0.017633183572149921 -0.052935050217714663 -0.053900967368203413 -0.017712490347641316 0.024414276980811812 -0.030064113803709304 0.056135256369754222 -9.9205705060184007e-05 -0.037382504113625752 0.0049189548607790484 -0.022328783130486765 0.019205433251204225 0.004396089543485672 0.043043172432422644 -0.0091978061335366169 -0.00033235690265512611 0.043985995884988527 0.031165908598448207 -0.034941936571629618 0.019729558368201464 0.057253722163022748 0.070978622371813696 0.0030634882379973979 0.04381990976092167 0.038531668008334449 -0.016535041405131682 0.0040560146132316037
leaf_weight=49.464343801140785 14.33082655072212 18.795906543731693 46.297359898686409 21.754372552037239 13.636628061532972 9.020096883177759 13.568881109356878 9.7474937736988085 11.816881984472273 10.094882905483244 14.956255510449408 8.9477678090333921 11.450233370065691 10.40533573925495 10.721852153539656 7.24792157113552 10.680707246065142 16.364024937152863 12.363734558224676 14.511445388197897 15.849025279283522 10.554738506674768 16.788592472672462 9.475944787263872 24.757055848836899 11.462533280253409 14.054933980107306 29.380530342459679 10.936255097389219 10.333037436008452
leaf_count=220 38 53 135 76 57 36 51 31 51 29 49 34 39 37 39 27 31 55 41 41 48 38 52 26 65 37 40 86 37 33
internal_value=0.0123437 0.0160018 0.0146786 0.0116467 0.00799592 -0.00598334 0.0146343 0.0189412 0.00265832 0.0112636 0.0222699 -0.00516238 0.0218789 0.0122491 -0.0137662 -0.0279278 0.0288128 0.0114336 0.0261932 0.0295901 0.0382191 0.0143527 -0.00137406 0.0459638 0.0554393 0.0275879 0.0263558 0.0259702 0.0167587 0.0292585
internal_weight=489.77 429.583 415.253 341.91 272.465 87.7269 184.738 162.983 74.0903 57.8223 149.415 18.6953 46.0054 35.9105 60.1862 16.268 73.3421 27.0447 130.719 115.763 73.9083 41.8548 27.3433 61.5446 40.6061 20.9385 25.5052 69.4457 40.0652 29.1289
internal_count=1632 1373 1335 1114 905 316 589 513 259 196 462 65 145 116 259 63 221 86 397 348 217 131 90 176 113 63 79 209 123 86
is_linear=0
shrinkage=0.05


Tree=15
num_leaves=31
num_cat=0
split_feature=12 12 2 12 10 10 2 10 10 13 10 12 4 5 0 11 11 11 0 4 11 5 10 11 13 11 13 13 12 10
split_gain=22.4248 14.8395 14.432 9.78635 8.43176 10.7664 8.05072 10.2546 10.0844 8.44564 7.22962 7.70148 6.39506 6.91307 7.17258 6.35197 6.20726 6.82211 6.01238 5.49731 5.36064 5.32472 5.22356 10.151 5.07397 7.25373 4.96751 4.84094 4.15064 4.02339
threshold=362.60000000000008 904554.30000000016 1421597.0000000002 807944.10000000021 0.029468627383583201 0.024445806478017005 335580.00000000006 0.0093647111581746517 0.012062973406458902 0.014994646680942201 0.013475542735370003 1142709.3 -0.016949152542372847 -0.0017826728016879497 22.550000000000004 -0.27172939201797913 2.4079407139945261 0.3455174184966176 77.450000000000017 -0.0040241611607720997 0.76323440974220691 -0.016067842799770447 0.014555430020991902 -0.20820364834723723 0.016840741750749903 0.16396318435235027 0.0025980793880938506 0.027027027027026956 3017712.2000000007 0.03315390652363661
decision_type=2 2 2 2 2 2 2 2 2 2 2 2 2 2 2 2 2 2 2 2 2 2 2 2 2 2 2 2 2 2
left_child=26 3 10 4 5 6 7 18 -9 -10 -3 -12 -4 14 -14 -11 17 22 19 -2 -17 -13 -15 -24 -8 -26 -1 -27 -19 -6
right_child=1 2 12 -5 29 -7 24 8 9 15 11 21 13 16 -16 20 -18 28 -20 -21 -22 -23 23 -25 25 27 -28 -29 -30 -31
leaf_value=-0.040574117766198667 0.025312955222613138 -0.050194226019625143 0.041931941725297156 0.061172419326910532 -0.030217903818864564 0.056579660220067156 0.055105627560755405 0.045681859523528018 -0.024527383380936071 0.032825836367572102 0.026242086844004888 0.0021198783638736013 0.0037842862679674351 0.047316882645940084 -0.052974650964124417 -0.016505160635865095 0.050693178569983691 -0.037505677871451183 -0.050250794965117779 -0.018713103059542241 0.021473273525672354 -0.045007511759552643 -0.030539990296417092 0.042921283531216596 -0.0067112135076223727 0.011023211753061989 -0.0086708404379954793 0.052227117100401635 0.01134872492892673 0.0075658918253036292
leaf_weight=17.50431515276432 12.415169388055803 14.138858720660208 16.004050955176353 14.743272662162779 10.436420798301695 21.210684016346931 19.921081528067589 29.274193644523621 13.530812740325926 37.821592018008232 11.26475355029106 10.897407934069632 17.56641119718552 13.039590209722521 8.1477087438106519 17.41885156929493 11.015408083796499 9.7794364839792269 7.4302792847156516 16.531914845108986 19.913603335618973 13.319350808858873 9.4186327904462832 9.3914927244186384 12.975595846772192 10.987553447484972 40.275020986795425 20.295622810721397 7.8273148685693732 21.685658559203148
leaf_count=83 38 58 46 40 37 58 54 84 49 112 36 36 59 40 32 59 31 39 29 60 61 56 36 28 42 34 171 55 26 71
internal_value=0.0109435 0.0148024 0.0021631 0.0214976 0.0193459 0.0225693 0.019268 0.0130791 0.0202363 0.011837 -0.0199605 -0.00791283 0.0129057 0.00751571 -0.0142002 0.018384 0.0167498 0.00918967 -0.0101293 0.000169316 0.00375302 -0.0238004 0.0229968 0.00613765 0.0341506 0.0247187 -0.018336 0.0377551 -0.0157868 -0.00471001
internal_weight=496.182 438.403 151.81 286.592 271.849 239.727 218.516 154.336 117.959 88.6849 49.6204 35.4815 102.19 86.186 25.7141 75.154 60.4719 49.4565 36.3774 28.9471 37.3325 24.2168 31.8497 18.8101 64.1799 44.2588 57.7793 31.2832 17.6068 32.1221
internal_count=1660 1406 523 883 843 735 677 492 365 281 186 128 337 291 91 232 200 169 127 98 120 92 104 64 185 131 254 89 65 108
is_linear=0
shrinkage=0.05


end of trees

feature_importances:
return_1d=55
vol_ma_5=53
vol_chg=50
hl_range=48
volatility_5=46
volume=38
return_5d=33
return_3d=29
low=26
ma_ratio_5=26
ma_10=22
high=19
close=17
symbol_enc=10
ma_5=8

parameters:
[boosting: gbdt]
[objective: binary]
[metric: binary_logloss,auc]
[tree_learner: serial]
[device_type: cpu]
[data_sample_strategy: bagging]
[data: ]
[valid: ]
[num_iterations: 1000]
[learning_rate: 0.05]
[num_leaves: 31]
[num_threads: 0]
[seed: 42]
[deterministic: 0]
[force_col_wise: 0]
[force_row_wise: 0]
[histogram_pool_size: -1]
[max_depth: -1]
[min_data_in_leaf: 30]
[min_sum_hessian_in_leaf: 0.001]
[bagging_fraction: 0.8]
[pos_bagging_fraction: 1]
[neg_bagging_fraction: 1]
[bagging_freq: 5]
[bagging_seed: 400]
[bagging_by_query: 0]
[feature_fraction: 0.8]
[feature_fraction_bynode: 1]
[feature_fraction_seed: 30056]
[extra_trees: 0]
[extra_seed: 12879]
[early_stopping_round: 0]
[early_stopping_min_delta: 0]
[first_metric_only: 0]
[max_delta_step: 0]
[lambda_l1: 0]
[lambda_l2: 0]
[linear_lambda: 0]
[min_gain_to_split: 0]
[drop_rate: 0.1]
[max_drop: 50]
[skip_drop: 0.5]
[xgboost_dart_mode: 0]
[uniform_drop: 0]
[drop_seed: 17869]
[top_rate: 0.2]
[other_rate: 0.1]
[min_data_per_group: 100]
[max_cat_threshold: 32]
[cat_l2: 10]
[cat_smooth: 10]
[max_cat_to_onehot: 4]
[top_k: 20]
[monotone_constraints: ]
[monotone_constraints_method: basic]
[monotone_penalty: 0]
[feature_contri: ]
[forcedsplits_filename: ]
[refit_decay_rate: 0.9]
[cegb_tradeoff: 1]
[cegb_penalty_split: 0]
[cegb_penalty_feature_lazy: ]
[cegb_penalty_feature_coupled: ]
[path_smooth: 0]
[interaction_constraints: ]
[verbosity: -1]
[saved_feature_importance_type: 0]
[use_quantized_grad: 0]
[num_grad_quant_bins: 4]
[quant_train_renew_leaf: 0]
[stochastic_rounding: 1]
[linear_tree: 0]
[max_bin: 255]
[max_bin_by_feature: ]
[min_data_in_bin: 3]
[bin_construct_sample_cnt: 200000]
[data_random_seed: 175]
[is_enable_sparse: 1]
[enable_bundle: 1]
[use_missing: 1]
[zero_as_missing: 0]
[feature_pre_filter: 1]
[pre_partition: 0]
[two_round: 0]
[header: 0]
[label_column: ]
[weight_column: ]
[group_column: ]
[ignore_column: ]
[categorical_feature: ]
[forcedbins_filename: ]
[precise_float_parser: 0]
[parser_config_file: ]
[objective_seed: 16083]
[num_class: 1]
[is_unbalance: 0]
[scale_pos_weight: 1.73037]
[sigmoid: 1]
[boost_from_average: 1]
[reg_sqrt: 0]
[alpha: 0.9]
[fair_c: 1]
[poisson_max_delta_step: 0.7]
[tweedie_variance_power: 1.5]
[lambdarank_truncation_level: 30]
[lambdarank_norm: 1]
[label_gain: ]
[lambdarank_position_bias_regularization: 0]
[eval_at: ]
[multi_error_top_k: 1]
[auc_mu_weights: ]
[num_machines: 1]
[local_listen_port: 12400]
[time_out: 120]
[machine_list_filename: ]
[machines: ]
[gpu_platform_id: -1]
[gpu_device_id: -1]
[gpu_use_dp: 0]
[num_gpu: 1]

end of parameters

pandas_categorical:[]
